0.015384761
0.0066480706
0.056923058
0.06523858
0.0021352621
-0.0060404595
0.030808462
-0.046481844
0.031020602
-0.023486268
0.050331026
0.08333182
0.029987711
0.01929444
-0.049924307
-0.010950763
0.04750426
-0.06386463
-0.012418888
-0.0049596494
0.04025641
0.05486214
-0.03498313
-0.012897953
0.00123501
-0.032949775
-0.039769802
-0.015411591
0.036307305
-0.01949228
0.045047116
0.008720104
0.04054617
0.004143424
0.024743538
0.060955703
-0.05871325
5.3659835e-05
-0.014589967
0.028361509
0.040899828
0.0445535
0.056665648
0.00805659
0.060042664
0.007194606
0.044154245
0.058487013
-0.018669909
-0.034336884
0.026203876
-0.017667925
-0.0039933613
-0.003623269
0.046101067
0.075646214
0.025279552
-0.0526304
-0.061745167
0.06033533
0.029558858
0.015042244
0.035108007
0.021967048
0.033806447
-0.046699326
0.06933508
0.061928835
0.02397853
0.0089811515
-0.052145228
0.06375927
0.046266887
-0.079677664
0.002952145
0.082742065
-0.01871778
0.019394029
0.042103674
0.0060159676
0.020513345
0.03511218
0.023274286
-0.0045139287
0.041113723
-0.08748577
0.019765086
0.0009844063
0.03722298
-0.0092227785
-0.004748538
0.0061577368
-0.0021592202
0.012944015
0.036918417
0.03833847
0.042607
0.029855357
0.06076648
0.006812451
0.031084836
0.052203514
0.011197755
0.053817917
0.032657202
-0.0049882876
0.044030227
-0.036505982
0.04466538
-0.0011069882
-0.03306758
-0.029139603
-0.003533621
0.03495828
0.07201318
0.06651826
0.085777216
0.0315453
0.0740128
0.04603831
0.01554839
0.028924014
0.02255665
0.04165627
0.00783591
0.060583916
-0.023541851
-0.05243534